<?xml version="1.0"?>
<opencv_storage>
<stage0>
  <maxWeakCount>7</maxWeakCount>
  <stageThreshold>-6.8774974346160889e-01</stageThreshold>
  <weakClassifiers>
    <_>
      <internalNodes>
        0 -1 68325 3.9890194311738014e-03</internalNodes>
      <leafValues>
        -6.0732114315032959e-01 9.1478699445724487e-01</leafValues></_>
    <_>
      <internalNodes>
        0 -1 84176 1.3963673263788223e-02</internalNodes>
      <leafValues>
        -6.1663371324539185e-01 8.5863810777664185e-01</leafValues></_>
    <_>
      <internalNodes>
        0 -1 9444 1.7808381468057632e-02</internalNodes>
      <leafValues>
        -9.2951536178588867e-01 5.5754047632217407e-01</leafValues></_>
    <_>
      <internalNodes>
        0 -1 69940 -1.2290626764297485e-02</internalNodes>
      <leafValues>
        5.6255936622619629e-01 -7.8823423385620117e-01</leafValues></_>
    <_>
      <internalNodes>
        0 -1 115249 2.5535933673381805e-02</internalNodes>
      <leafValues>
        -8.7352633476257324e-01 4.6246963739395142e-01</leafValues></_>
    <_>
      <internalNodes>
        0 -1 60166 -5.9924414381384850e-03</internalNodes>
      <leafValues>
        9.9394917488098145e-01 -4.7304633259773254e-01</leafValues></_>
    <_>
      <internalNodes>
        0 -1 62206 -5.5868639610707760e-03</internalNodes>
      <leafValues>
        9.5054143667221069e-01 -5.7331806421279907e-01</leafValues></_></weakClassifiers></stage0>
</opencv_storage>
